svm_type epsilon_svr
kernel_type rbf
gamma 10
nr_class 2
total_sv 22
rho -2.5149
SV
-5.036803246089067 1:-0.078048348 2:0.36146665 
0.5871311743656695 1:-0.093855023 2:0.26960886 
0.6127807989163913 1:-0.28631055 2:-0.33163112 
0.9648920041946605 1:-0.33848667 2:-0.77044219 
-0.8793003832450252 1:-0.048290431 2:0.11971557 
-0.4114692409748358 1:-0.090782762 2:-0.26157779 
-0.05291841176893629 1:-0.14986664 2:-0.51539564 
10 1:0.021419048 2:0.35107994 
2.714402381624434 1:0.025934458 2:0.25024664 
0.8028966502600289 1:0.27434492 2:-0.83707106 
-10 1:0.072208285 2:0.33431995 
0.5421725089660776 1:0.17257833 2:-0.19549781 
-0.08903956234178577 1:0.26660275 2:-0.40641117 
0.6439935999366145 1:0.43970883 2:-0.55505335 
-2.136980744876664 1:0.1632334 2:0.19034445 
-1.034355402392326 1:0.33985054 2:-0.19865334 
0.407490991162254 1:0.46428227 2:-0.28854227 
-8.730642218004698 1:0.16059828 2:0.41159773 
10 1:0.18386281 2:0.34635115 
-0.325689026941218 1:0.25786996 2:0.16594672 
-0.8847211109669103 1:0.3831811 2:-0.028786659 
2.306159238175338 1:0.46977222 2:-0.073935509 
