svm_type epsilon_svr
kernel_type rbf
gamma 10
nr_class 2
total_sv 33
rho -2.63113
SV
-7.387197549644995 1:-0.076641083 2:0.36675334 
4.461848759780814 1:-0.087466121 2:0.27339554 
1.971436527603773 1:-0.1363228 2:0.017746687 
-2.034292922000343 1:-0.27412277 2:-0.34082669 
1.434889202482314 1:-0.42368442 2:-0.45838892 
-5.842900075258587 1:-0.044304907 2:0.12166667 
6.00641418440159 1:-0.085149467 2:-0.25840664 
0.3656664554456817 1:-0.14092612 2:-0.52274221 
0.6618874879547225 1:-0.24171281 2:-0.79338229 
10 1:0.026893616 2:0.2879889 
-9.018576223737069 1:0.03803277 2:-0.055593371 
-8.681176431871437 1:0.043839097 2:-0.27908444 
-0.7326442092843755 1:0.080589414 2:-0.55915105 
0.7552347053800628 1:0.22220051 2:-0.86308885 
-10 1:0.06837666 2:0.28730893 
10 1:0.19699383 2:0.5668844 
10 1:0.10143065 2:0.13900006 
10 1:0.12645221 2:-0.012893319 
10 1:0.17197502 2:-0.19663554 
3.045969880766569 1:0.25526559 2:-0.41498667 
9.048013563718797 1:0.1295656 2:0.42308009 
2.3264291564058 1:0.13556051 2:0.2939533 
-5.335460263837566 1:0.15876448 2:0.18652892 
-9.66791899034097 1:0.19631219 2:0.065133333 
-0.6042473483572305 1:0.25262332 2:-0.080284476 
-9.078639630508894 1:0.3417933 2:-0.21529996 
2.044552488590564 1:0.45842111 2:-0.3065933 
-10 1:0.16143894 2:0.40772891 
4.089596597389151 1:0.47616565 2:-0.079902232 
-10 1:0.19860005 2:0.44218445 
-6.023395781829735 1:0.22631443 2:0.63581777 
8.335653872620911 1:0.25482392 2:0.31336224 
-0.1411434558695444 1:0.34896159 2:0.18024659