svm_type epsilon_svr
kernel_type rbf
gamma 10
nr_class 2
total_sv 22
rho -1.29103
SV
-7.925798008185923 1:-0.078048348 2:0.36146665 
-2.200837172703443 1:-0.10985059 2:0.15900886 
-1.211189257919931 1:-0.1463989 2:0.009559989 
-1.445908891213227 1:-0.28631055 2:-0.33163112 
-10 1:-0.33848667 2:-0.77044219 
5.556953595036067 1:-0.030539393 2:0.34226668 
4.873870338173849 1:-0.034465015 2:0.24641109 
0.4165133878580997 1:-0.048290431 2:0.11971557 
0.5080772154401293 1:-0.062657237 2:-0.044442236 
0.4877069209059672 1:-0.090782762 2:-0.26157779 
9.436476426761518 1:-0.34746444 2:-0.75276661 
-0.1238187923691474 1:0.27434492 2:-0.83707106 
-0.4146882026083546 1:0.10197663 2:0.14266217 
0.3431498642702203 1:0.43970883 2:-0.55505335 
-8.136962434452908 1:0.11950338 2:0.37848008 
-2.702555867108244 1:0.13780725 2:0.29019117 
-0.4898237529513052 1:0.2570684 2:-0.068244398 
0.09323359610540712 1:0.46428227 2:-0.28854227 
10 1:0.16059828 2:0.41159773 
1.333795805688293 1:0.25786996 2:0.16594672 
0.2835726538125965 1:0.30991614 2:0.066788912 
1.31823257546033 1:0.46977222 2:-0.073935509 
