svm_type epsilon_svr
kernel_type rbf
gamma 10
nr_class 2
total_sv 25
rho -1.51672
SV
-5.078733856408862 1:-0.076641083 2:0.36675334 
-5.153496864721329 1:-0.087466121 2:0.27339554 
-1.245691526219499 1:-0.1363228 2:0.017746687 
-0.7691557004250222 1:-0.18937337 2:-0.15869778 
-1.126948251705785 1:-0.42368442 2:-0.45838892 
5.665772206286138 1:-0.029138684 2:0.3497622 
3.204675610690572 1:-0.038486719 2:0.24365997 
0.6271295106940769 1:-0.05774051 2:-0.054624438 
-0.5635865431019152 1:-0.24171281 2:-0.79338229 
-0.02039654405355873 1:0.080589414 2:-0.55915105 
-0.2090698291476878 1:0.22220051 2:-0.86308885 
10 1:0.06837666 2:0.28730893 
-2.134222129548601 1:0.08250165 2:0.26237774 
-10 1:0.19699383 2:0.5668844 
-10 1:0.1295656 2:0.42308009 
-10 1:0.13556051 2:0.2939533 
0.4944083565392002 1:0.19631219 2:0.065133333 
0.5971760734580519 1:0.45842111 2:-0.3065933 
7.676191693484818 1:0.16143894 2:0.40772891 
-0.8990043988608722 1:0.18300498 2:0.33397555 
-0.5164019757826045 1:0.3851155 2:-0.028268874 
10 1:0.19860005 2:0.44218445 
7.181078626394303 1:0.22631443 2:0.63581777 
0.3501907676402521 1:0.34896159 2:0.18024659 
1.92008477478832 1:0.48189497 2:0.085886598 
